sequential/gru/kernel:0
(1, 240)
[[ 0.25881854 -0.45921624 -0.29351184 -0.27264476 -0.31867194 -0.21263278
  -0.29576543 -0.24109662 -0.33223358 -0.5254433  -0.4150115  -0.21243106
  -0.45334622 -0.51901156 -0.25140166 -0.2843753  -0.43728083 -0.3966819
  -0.3787038  -0.46728504 -0.21285962 -0.08798482 -0.26391336 -0.4327344
  -0.29048094 -0.52816206 -0.18281747 -0.10668057 -0.4371725  -0.32836327
  -0.19485219 -0.24592677 -0.4561871  -0.4728987  -0.50831175 -0.47943926
  -0.30743977 -0.30052897 -0.34572464 -0.3990875   0.14139682 -0.51774704
  -0.61922896 -0.1339042  -0.42788392 -0.4239514  -0.4332578  -0.23540784
  -0.30168715 -0.38175744 -0.5499914   0.01538034 -0.50907564 -0.4313884
  -0.2580025  -0.3095853  -0.38601196 -0.17926297 -0.3079913  -0.50799465
  -0.48982006 -0.33785167 -0.22230384 -0.06807308 -0.40900913 -0.1987169
  -0.42905322 -0.37684974 -0.377097   -0.40746477 -0.4109123  -0.16460781
  -0.3284432  -0.455574   -0.20367853 -0.26741108 -0.5158106  -0.5338582
  -0.5746426  -0.2625603   0.00310974  0.0038207   0.10043599 -0.02148759
  -0.03595801 -0.03439961  0.08792184  0.03053557  0.08039282  0.15203641
  -0.03855364  0.12985136  0.01432172  0.037864    0.04726859  0.11898067
  -0.16846833  0.10892978 -0.11661077 -0.10504724 -0.06925599  0.06215259
   0.03418661  0.14952613 -0.00925397 -0.04339359 -0.15364356 -0.03345652
  -0.02376332 -0.02190444  0.07505028  0.00814935  0.10796622 -0.1089983
  -0.0359837   0.06827436  0.14727296 -0.04534335  0.04924916 -0.04357647
   0.00279004 -0.0024946   0.03344049 -0.13225742 -0.02795916  0.01352606
   0.1015131   0.10368283 -0.12462153  0.02437312 -0.01131131  0.12406394
  -0.11997607 -0.15714987 -0.00223936  0.13737476  0.0293248  -0.08516575
   0.05737327  0.08454394 -0.15841438 -0.1453044   0.01821775  0.00899364
  -0.09690278 -0.00267804  0.08899518 -0.10176771 -0.02003874 -0.10546618
   0.08424935  0.08089803 -0.01907288  0.07870413 -0.09354649 -0.00927174
  -0.05027274  0.0480093  -0.01858378 -0.1472286  -0.11541433 -0.08292694
   0.09977634 -0.0269289  -0.13753256  0.12346896  0.02585645 -0.06561982
   0.06291881  0.13436896 -0.08430168 -0.05677658 -0.02496999  0.07174981
   0.07223007  0.09636807  0.14018157 -0.04374414  0.10439505  0.15978296
   0.08014736  0.04796565  0.1378904  -0.1413332   0.13006163 -0.09261807
  -0.11915861 -0.05389837  0.14186639 -0.10321835 -0.06946929 -0.03703031
   0.06073341 -0.03008944  0.14486182 -0.05764393 -0.07549429  0.1018965
   0.07121263  0.0721079   0.00316267  0.09555361  0.08373807  0.1243394
  -0.09296859  0.0191538   0.07187378  0.14282562 -0.03063208  0.07830718
  -0.10957883 -0.01803445 -0.06842052  0.11589377 -0.09441305 -0.01230457
   0.01350322 -0.10105623 -0.11353022  0.11328508  0.14384472 -0.13328572
  -0.13955116  0.01332799  0.07115702 -0.12670624  0.05771182  0.13805984
  -0.14561027 -0.04926157 -0.04212339 -0.05906377  0.06114382 -0.15243176
  -0.11079753 -0.01998809 -0.09268542  0.09823946 -0.12690651  0.0172041 ]]
sequential/gru/recurrent_kernel:0
(80, 240)
[[-0.21458812  0.09397251  0.11358368 ...  0.04019101 -0.14558317
  -0.09860671]
 [-0.12769687  0.08298977  0.15465067 ...  0.0365321   0.05562554
  -0.03695871]
 [ 0.05987106 -0.13282381 -0.17816801 ... -0.03584276 -0.09045494
  -0.05211435]
 ...
 [ 0.10852718 -0.11624525 -0.03803084 ...  0.01047834 -0.0191399
  -0.09913651]
 [-0.0933205   0.03183552  0.08414402 ...  0.03945874 -0.0556561
   0.00782028]
 [ 0.01696063  0.11873615  0.07467715 ... -0.07966319  0.09981405
  -0.05266623]]
sequential/gru/bias:0
(2, 240)
[[ 1.92803338e-01 -4.79441822e-01 -4.98499095e-01 -1.81200609e-01
  -5.12773216e-01 -4.28844661e-01 -3.48247677e-01 -4.62633342e-01
  -4.63760585e-01 -4.89152014e-01 -4.67887789e-01 -3.25173467e-01
  -4.04071033e-01 -5.05727708e-01 -4.47000891e-01 -5.38296938e-01
  -4.54644263e-01 -4.73972350e-01 -5.67351580e-01 -7.03245461e-01
  -3.81267756e-01 -4.59133610e-02 -4.43338186e-01 -5.30703545e-01
  -4.14132595e-01 -5.84809899e-01 -4.00108248e-01 -1.65272102e-01
  -4.19067889e-01 -4.27451432e-01 -3.79346907e-01 -3.50976914e-01
  -4.83066589e-01 -4.15610135e-01 -5.00070155e-01 -5.15147209e-01
  -3.78527492e-01 -4.24088955e-01 -4.15231496e-01 -5.16518474e-01
   1.86510887e-02 -5.76373518e-01 -5.93186617e-01 -2.86370754e-01
  -5.63494921e-01 -3.92066538e-01 -4.70666796e-01 -3.81466359e-01
  -3.84852588e-01 -4.79212880e-01 -5.57266831e-01 -6.76589012e-02
  -5.11514366e-01 -4.50771809e-01 -4.93792623e-01 -2.30193034e-01
  -2.86761343e-01 -3.83552432e-01 -4.06424642e-01 -5.94123900e-01
  -4.58016574e-01 -5.10661960e-01 -4.19049084e-01 -1.11663132e-03
  -6.36364281e-01 -4.14930105e-01 -5.73463559e-01 -5.24423122e-01
  -4.02885765e-01 -4.01760250e-01 -5.91217816e-01 -3.82600278e-01
  -5.55586636e-01 -5.36315858e-01 -3.58611435e-01 -2.38093406e-01
  -4.83711064e-01 -5.72436929e-01 -5.43304503e-01 -1.89107105e-01
  -1.83799583e-03 -3.33268270e-02 -2.16673817e-02 -1.86237153e-02
  -6.87521789e-03  6.66997582e-03 -1.19822929e-02 -1.12692835e-02
  -8.90720449e-03  6.06315676e-03 -8.67701415e-03  9.04547400e-04
  -8.66539020e-04 -8.06752965e-03 -1.14263454e-02 -2.80779209e-02
  -5.91598591e-03 -1.14757484e-02  1.62861042e-03  1.24816382e-02
  -6.28934102e-03  3.67750111e-03 -8.12348258e-03  8.69496725e-03
   1.14869634e-02 -3.95990629e-03 -4.44515469e-03  1.46225551e-02
  -2.34202901e-03 -2.61040707e-03 -3.70626501e-03 -1.09276911e-02
  -1.32865459e-02 -9.19503625e-03  5.90663962e-03 -1.09656341e-02
   1.84330624e-03 -5.28941164e-03 -7.47783668e-03 -1.80232748e-02
  -1.21182567e-02 -1.07442616e-02 -1.05741331e-02 -1.52580757e-02
  -3.32422298e-03  7.92056322e-03  4.02929261e-03 -1.05188554e-02
  -3.80687113e-03 -2.97900266e-03 -7.91490916e-03 -1.57069974e-02
  -5.44484379e-03 -5.17707039e-03 -3.53587605e-02 -1.05451345e-02
  -4.06884076e-03 -7.37569947e-03 -1.22999949e-02  3.64156696e-03
  -5.26837539e-03  1.52172369e-03 -8.14178586e-03 -6.19178731e-03
  -6.41914234e-02 -9.31482017e-03 -7.23729730e-02 -1.43308975e-02
   6.36825105e-03 -1.37905907e-02 -4.71478589e-02 -1.04154758e-02
  -2.08633337e-02  9.09625553e-03  2.03279238e-02 -2.17374060e-02
  -6.18148297e-02 -1.71177816e-02 -7.37809530e-03 -1.94259994e-02
   1.01373894e-02  1.06712254e-02 -1.46850189e-02  5.04937582e-03
   2.26088334e-02 -1.78048108e-02 -3.30715720e-03  8.06216151e-03
  -9.77109466e-03 -1.73765291e-02  1.01225339e-02  7.97097292e-03
   4.11821390e-03 -1.15257548e-02 -8.91571864e-03 -1.43719139e-02
  -2.09569056e-02  7.21874973e-03 -1.41590266e-02 -2.23453902e-02
  -9.07322578e-03 -5.02133416e-03 -1.87803563e-02  1.95881203e-02
  -1.51933059e-02  1.52319521e-02  1.29435491e-02  9.58263408e-03
  -1.75995566e-02  1.31535903e-02  9.73333791e-03  3.73394461e-03
  -8.50409269e-03  5.53846685e-03 -1.88268051e-02  7.43003935e-03
   7.75190396e-03 -1.24027161e-02 -1.07897259e-02 -1.15882047e-02
   1.34061160e-03 -1.47351315e-02 -1.56242186e-02 -1.45957666e-02
   1.35235135e-02 -2.60474090e-03 -1.19608045e-02 -1.56312399e-02
   6.49637077e-03 -1.32996440e-02  1.23157063e-02  7.12389220e-03
   9.32028331e-03 -1.42185763e-02  9.54267196e-03  3.02785239e-03
  -1.58691057e-03  1.11092580e-02  1.26067111e-02 -1.43945487e-02
  -1.94232017e-02  1.70641970e-02  1.80735551e-02 -7.14804512e-04
  -1.26577327e-02  1.83262508e-02 -9.34306625e-03 -1.90017018e-02
   1.75051279e-02  8.69786926e-03  7.50284409e-03  1.00553781e-02
  -7.53273116e-03  1.81733929e-02  1.52384853e-02  8.58779997e-03
   1.26857348e-02 -1.41209019e-02  1.60598736e-02 -5.82727650e-03]
 [ 1.92803338e-01 -4.79441822e-01 -4.98499095e-01 -1.81200609e-01
  -5.12773216e-01 -4.28844661e-01 -3.48247677e-01 -4.62633342e-01
  -4.63760585e-01 -4.89152014e-01 -4.67887789e-01 -3.25173467e-01
  -4.04071033e-01 -5.05727708e-01 -4.47000891e-01 -5.38296938e-01
  -4.54644263e-01 -4.73972350e-01 -5.67351580e-01 -7.03245461e-01
  -3.81267756e-01 -4.59133610e-02 -4.43338186e-01 -5.30703545e-01
  -4.14132595e-01 -5.84809899e-01 -4.00108248e-01 -1.65272102e-01
  -4.19067889e-01 -4.27451432e-01 -3.79346907e-01 -3.50976914e-01
  -4.83066589e-01 -4.15610135e-01 -5.00070155e-01 -5.15147209e-01
  -3.78527492e-01 -4.24088955e-01 -4.15231496e-01 -5.16518474e-01
   1.86510887e-02 -5.76373518e-01 -5.93186617e-01 -2.86370754e-01
  -5.63494921e-01 -3.92066538e-01 -4.70666796e-01 -3.81466359e-01
  -3.84852588e-01 -4.79212880e-01 -5.57266831e-01 -6.76589012e-02
  -5.11514366e-01 -4.50771809e-01 -4.93792623e-01 -2.30193034e-01
  -2.86761343e-01 -3.83552432e-01 -4.06424642e-01 -5.94123900e-01
  -4.58016574e-01 -5.10661960e-01 -4.19049084e-01 -1.11663132e-03
  -6.36364281e-01 -4.14930105e-01 -5.73463559e-01 -5.24423122e-01
  -4.02885765e-01 -4.01760250e-01 -5.91217816e-01 -3.82600278e-01
  -5.55586636e-01 -5.36315858e-01 -3.58611435e-01 -2.38093406e-01
  -4.83711064e-01 -5.72436929e-01 -5.43304503e-01 -1.89107105e-01
  -1.83799583e-03 -3.33268270e-02 -2.16673817e-02 -1.86237153e-02
  -6.87521789e-03  6.66997582e-03 -1.19822929e-02 -1.12692835e-02
  -8.90720449e-03  6.06315676e-03 -8.67701415e-03  9.04547400e-04
  -8.66539020e-04 -8.06752965e-03 -1.14263454e-02 -2.80779209e-02
  -5.91598591e-03 -1.14757484e-02  1.62861042e-03  1.24816382e-02
  -6.28934102e-03  3.67750111e-03 -8.12348258e-03  8.69496725e-03
   1.14869634e-02 -3.95990629e-03 -4.44515469e-03  1.46225551e-02
  -2.34202901e-03 -2.61040707e-03 -3.70626501e-03 -1.09276911e-02
  -1.32865459e-02 -9.19503625e-03  5.90663962e-03 -1.09656341e-02
   1.84330624e-03 -5.28941164e-03 -7.47783668e-03 -1.80232748e-02
  -1.21182567e-02 -1.07442616e-02 -1.05741331e-02 -1.52580757e-02
  -3.32422298e-03  7.92056322e-03  4.02929261e-03 -1.05188554e-02
  -3.80687113e-03 -2.97900266e-03 -7.91490916e-03 -1.57069974e-02
  -5.44484379e-03 -5.17707039e-03 -3.53587605e-02 -1.05451345e-02
  -4.06884076e-03 -7.37569947e-03 -1.22999949e-02  3.64156696e-03
  -5.26837539e-03  1.52172369e-03 -8.14178586e-03 -6.19178731e-03
  -6.41914234e-02 -9.31482017e-03 -7.23729730e-02 -1.43308975e-02
   6.36825105e-03 -1.37905907e-02 -4.71478589e-02 -1.04154758e-02
  -2.08633337e-02  9.09625553e-03  2.03279238e-02 -2.17374060e-02
  -6.18148297e-02 -1.71177816e-02 -7.37809530e-03 -1.94259994e-02
   1.00149717e-02  1.01559740e-02 -1.37541369e-02  4.75077750e-03
   2.17353441e-02 -1.76343825e-02 -3.17240297e-03  7.82421976e-03
  -9.40058380e-03 -1.69820283e-02  1.00254696e-02  7.67444773e-03
   4.03815508e-03 -1.08606741e-02 -8.54667928e-03 -1.34164998e-02
  -2.11032294e-02  6.74870703e-03 -1.40652107e-02 -2.24460401e-02
  -9.20193549e-03 -4.63958876e-03 -1.84472483e-02  1.91946179e-02
  -1.52131394e-02  1.50541216e-02  1.33800209e-02  9.47460439e-03
  -1.75334234e-02  1.29164681e-02  9.40668210e-03  3.92256677e-03
  -7.85486773e-03  6.01852778e-03 -1.88198779e-02  7.06209289e-03
   7.64882192e-03 -1.22308414e-02 -1.04979519e-02 -1.14616193e-02
   1.15252042e-03 -1.43189644e-02 -1.51237343e-02 -1.39614362e-02
   1.33518027e-02 -2.60559795e-03 -1.13833053e-02 -1.51783619e-02
   6.93469681e-03 -1.30288564e-02  1.19503364e-02  7.04683736e-03
   9.42148641e-03 -1.40576158e-02  9.09890886e-03  2.80004553e-03
  -1.67945004e-03  1.12799266e-02  1.23249870e-02 -1.37423528e-02
  -1.92399006e-02  1.70899909e-02  1.75876990e-02 -5.17108245e-04
  -1.25347087e-02  1.82817839e-02 -8.95645469e-03 -1.86891370e-02
   1.73934624e-02  8.73934664e-03  7.11700972e-03  9.49214306e-03
  -7.14513380e-03  1.78264007e-02  1.53479725e-02  8.87456257e-03
   1.26387468e-02 -1.35069080e-02  1.55384345e-02 -5.91414003e-03]]
sequential/gru_1/kernel:0
(80, 300)
[[-0.09780958 -0.06134053 -0.01668278 ...  0.13008823 -0.02539284
   0.05071033]
 [ 0.07454809 -0.02558284  0.06233921 ... -0.02771508  0.01143462
  -0.12183075]
 [ 0.02884919  0.12212007  0.05202288 ... -0.05518045  0.04007608
  -0.03798066]
 ...
 [ 0.12675688 -0.05020753 -0.09872603 ... -0.08577172  0.09327028
   0.07879914]
 [-0.04631853  0.00950367 -0.00211949 ...  0.02591685  0.08474972
   0.00671483]
 [ 0.0806689  -0.1223355  -0.10481185 ...  0.05988557  0.10365111
   0.10619395]]
sequential/gru_1/recurrent_kernel:0
(100, 300)
[[-0.11582564 -0.02160192  0.03883666 ... -0.07356999 -0.06902171
   0.02200017]
 [-0.01414107  0.02659325  0.05569252 ... -0.00568752  0.00320321
   0.01686723]
 [-0.00796458 -0.02763224 -0.02963557 ... -0.01165383 -0.0609724
  -0.0119503 ]
 ...
 [-0.17264633  0.1135755  -0.08061127 ...  0.00916884 -0.01506261
   0.01519796]
 [-0.0096355   0.06016814 -0.04841419 ... -0.05525625 -0.00758008
   0.04933063]
 [ 0.11427896  0.02031691  0.06850182 ...  0.000225   -0.02968239
   0.0784782 ]]
sequential/gru_1/bias:0
(2, 300)
[[ 0.0814718   0.01859285  0.02755282  0.00057078  0.00392577  0.05820864
   0.03188916  0.08951648  0.09029019 -0.02784402  0.0686464   0.15658689
   0.02879214  0.03896549  0.11695733  0.09977624  0.05511912 -0.02232206
   0.06933644  0.08408727  0.04349849  0.05784262  0.03193247 -0.02290148
   0.06101955  0.03591813  0.01500446  0.04643443  0.10234843  0.09380504
   0.02830089 -0.00181571  0.0052426   0.09637401 -0.03842825  0.06222538
   0.02847257 -0.0057861   0.06307226  0.1364991  -0.00318245  0.04898442
   0.10041426  0.06653757 -0.00831222  0.06670824  0.02870661  0.0298192
   0.03851037  0.00628455  0.03087094  0.05166301  0.04112196  0.03807779
   0.0543019   0.03687765  0.01663082  0.05478261  0.05286122  0.07188663
   0.05605864  0.05888771  0.01984248  0.09535733 -0.01369046 -0.00573149
   0.15063852  0.03576588  0.05178432  0.00370224  0.02877436  0.04098921
   0.02339322  0.10060501 -0.00396038  0.10908132  0.10930156  0.09818953
   0.06644018  0.11140426  0.0743352   0.12353621  0.04701758  0.04919092
   0.04563667  0.01634403  0.00537304  0.02154893  0.15123093  0.01806659
   0.00262992  0.11234714  0.07261636  0.04744267  0.02960254  0.08719688
   0.01096105  0.11801906  0.07297618  0.01494047 -0.03215708  0.01947188
  -0.02698951  0.01903557 -0.01286033 -0.01294711 -0.00617009 -0.00417871
  -0.00765071 -0.02733202 -0.02762268 -0.02133887 -0.04862125 -0.02388105
  -0.02032462 -0.01559417 -0.03737783 -0.06519132 -0.04519907 -0.01829658
  -0.04272977 -0.02674358 -0.00644795 -0.04126924 -0.02737545 -0.03371693
  -0.02352982 -0.03985722 -0.00561682 -0.01825297 -0.01376337 -0.0100012
  -0.02171615 -0.02087304 -0.02525213 -0.01497976 -0.00552546 -0.02684061
  -0.02467431 -0.01598776 -0.0310983  -0.00077846 -0.00607885  0.0200056
  -0.02728697 -0.03470943  0.01218216 -0.01904493 -0.02474924 -0.04077476
  -0.0060879   0.00022993 -0.01924018 -0.04219752 -0.00437667 -0.02015655
  -0.02771503 -0.01013898  0.00247029 -0.0023422   0.00061288  0.00263728
   0.03818476 -0.02194372 -0.01479369 -0.01635901 -0.04643945 -0.0346972
  -0.0386132  -0.00461198 -0.07473461 -0.00698891 -0.00875339 -0.03213897
  -0.02622723 -0.02756612 -0.00735974 -0.00550849 -0.02583406 -0.02991637
  -0.02275077 -0.00268103 -0.01008624  0.00301048 -0.01421337 -0.01817398
  -0.05384953 -0.04676666 -0.01673778 -0.02359815 -0.01837193 -0.01678045
  -0.03114779 -0.00871436 -0.02677401 -0.00657396 -0.02820094 -0.01858515
   0.01280133 -0.02959981 -0.00815295  0.00311725 -0.00677803 -0.01137936
  -0.00922941  0.01357314 -0.00969212 -0.00761825 -0.01137977 -0.0130969
  -0.009281    0.00914147  0.01095609 -0.01051597 -0.01012145 -0.00526993
   0.00971    -0.0072841  -0.00913968 -0.00573663  0.00699024 -0.00781681
  -0.00824367  0.0066089   0.01229176  0.00781464  0.00546796 -0.00884366
   0.00575197  0.00588993 -0.00669068  0.00555673  0.00516091  0.00849387
   0.00615105  0.00587922 -0.00701206  0.01109058  0.00373951  0.00574666
   0.01164626  0.00456808 -0.00428951 -0.00807416 -0.00687016 -0.00648106
   0.00594862 -0.01051999  0.00657583 -0.00897027  0.00334297  0.00779749
  -0.00781527  0.00778831  0.00618881 -0.00786574 -0.00805393  0.00949281
   0.00367164  0.00593079  0.01051945  0.00039797 -0.00514412 -0.00777558
  -0.00855976  0.00752384 -0.00953841 -0.0067016   0.0086745  -0.00465811
   0.00597134 -0.00848682 -0.00918677  0.00791725  0.01505186  0.00276964
  -0.00541447  0.00604378 -0.01551407  0.00913998  0.00782758 -0.00902192
   0.00870516  0.0113984  -0.0066166  -0.005699   -0.00701134 -0.00856597
  -0.00669315  0.00551866 -0.01132442  0.00590119  0.00467646 -0.00632171
  -0.00675446 -0.007405    0.00923379 -0.01368752 -0.00778438  0.00967073]
 [ 0.0814718   0.01859285  0.02755282  0.00057078  0.00392577  0.05820864
   0.03188916  0.08951648  0.09029019 -0.02784402  0.0686464   0.15658689
   0.02879214  0.03896549  0.11695733  0.09977624  0.05511912 -0.02232206
   0.06933644  0.08408727  0.04349849  0.05784262  0.03193247 -0.02290148
   0.06101955  0.03591813  0.01500446  0.04643443  0.10234843  0.09380504
   0.02830089 -0.00181571  0.0052426   0.09637401 -0.03842825  0.06222538
   0.02847257 -0.0057861   0.06307226  0.1364991  -0.00318245  0.04898442
   0.10041426  0.06653757 -0.00831222  0.06670824  0.02870661  0.0298192
   0.03851037  0.00628455  0.03087094  0.05166301  0.04112196  0.03807779
   0.0543019   0.03687765  0.01663082  0.05478261  0.05286122  0.07188663
   0.05605864  0.05888771  0.01984248  0.09535733 -0.01369046 -0.00573149
   0.15063852  0.03576588  0.05178432  0.00370224  0.02877436  0.04098921
   0.02339322  0.10060501 -0.00396038  0.10908132  0.10930156  0.09818953
   0.06644018  0.11140426  0.0743352   0.12353621  0.04701758  0.04919092
   0.04563667  0.01634403  0.00537304  0.02154893  0.15123093  0.01806659
   0.00262992  0.11234714  0.07261636  0.04744267  0.02960254  0.08719688
   0.01096105  0.11801906  0.07297618  0.01494047 -0.03215708  0.01947188
  -0.02698951  0.01903557 -0.01286033 -0.01294711 -0.00617009 -0.00417871
  -0.00765071 -0.02733202 -0.02762268 -0.02133887 -0.04862125 -0.02388105
  -0.02032462 -0.01559417 -0.03737783 -0.06519132 -0.04519907 -0.01829658
  -0.04272977 -0.02674358 -0.00644795 -0.04126924 -0.02737545 -0.03371693
  -0.02352982 -0.03985722 -0.00561682 -0.01825297 -0.01376337 -0.0100012
  -0.02171615 -0.02087304 -0.02525213 -0.01497976 -0.00552546 -0.02684061
  -0.02467431 -0.01598776 -0.0310983  -0.00077846 -0.00607885  0.0200056
  -0.02728697 -0.03470943  0.01218216 -0.01904493 -0.02474924 -0.04077476
  -0.0060879   0.00022993 -0.01924018 -0.04219752 -0.00437667 -0.02015655
  -0.02771503 -0.01013898  0.00247029 -0.0023422   0.00061288  0.00263728
   0.03818476 -0.02194372 -0.01479369 -0.01635901 -0.04643945 -0.0346972
  -0.0386132  -0.00461198 -0.07473461 -0.00698891 -0.00875339 -0.03213897
  -0.02622723 -0.02756612 -0.00735974 -0.00550849 -0.02583406 -0.02991637
  -0.02275077 -0.00268103 -0.01008624  0.00301048 -0.01421337 -0.01817398
  -0.05384953 -0.04676666 -0.01673778 -0.02359815 -0.01837193 -0.01678045
  -0.03114779 -0.00871436 -0.02677401 -0.00657396 -0.02820094 -0.01858515
   0.01280133 -0.02959981 -0.00771848  0.00254563 -0.00618155 -0.01118157
  -0.00772629  0.01229237 -0.00995454 -0.00780128 -0.01167311 -0.01270511
  -0.00942484  0.00881092  0.0117393  -0.01069316 -0.0089967  -0.0052003
   0.00958989 -0.0069931  -0.00773625 -0.00591754  0.00698853 -0.00780747
  -0.00858823  0.00682429  0.01195515  0.00789363  0.00575807 -0.00859428
   0.00598519  0.00589726 -0.00645779  0.00443058  0.00527876  0.0084946
   0.00621167  0.00578231 -0.00666827  0.00961361  0.00355921  0.00566239
   0.0114913   0.00457898 -0.00418331 -0.00828211 -0.00562288 -0.00605225
   0.00538339 -0.00974364  0.00664679 -0.00979133  0.00310285  0.00766086
  -0.00815406  0.00756516  0.00601727 -0.00697336 -0.00785647  0.00906894
   0.00352869  0.00505171  0.0098515   0.00039627 -0.00531458 -0.00777024
  -0.0084584   0.00710416 -0.00847578 -0.00675202  0.00732511 -0.00476645
   0.00619811 -0.00878059 -0.00924865  0.00832565  0.01491229  0.00281577
  -0.00542588  0.00589978 -0.01608478  0.00929189  0.00776918 -0.00859649
   0.00833103  0.01107554 -0.00684771 -0.00576568 -0.00681602 -0.00871675
  -0.00697306  0.00561215 -0.01071989  0.00634133  0.00466901 -0.00611972
  -0.00713997 -0.00690657  0.00797994 -0.01294934 -0.00743688  0.00989376]]
sequential/dense/kernel:0
(100, 1)
[[-0.17724562]
 [ 0.11011603]
 [-0.15687831]
 [-0.07125357]
 [-0.10958949]
 [ 0.06566176]
 [-0.1513017 ]
 [-0.22822319]
 [-0.09796726]
 [-0.11860696]
 [-0.14768404]
 [ 0.05527402]
 [ 0.10590009]
 [-0.11182517]
 [-0.04995391]
 [-0.12023263]
 [ 0.14991824]
 [-0.21449532]
 [-0.14959055]
 [-0.21400608]
 [ 0.1549106 ]
 [-0.15091945]
 [-0.16482803]
 [ 0.18808433]
 [ 0.0769325 ]
 [ 0.18509899]
 [ 0.1931735 ]
 [-0.15264621]
 [ 0.18836296]
 [ 0.17725176]
 [-0.19470118]
 [ 0.13522618]
 [ 0.06107401]
 [ 0.17758521]
 [ 0.20544101]
 [ 0.12167528]
 [-0.17481382]
 [ 0.06993946]
 [ 0.15048629]
 [ 0.23047403]
 [ 0.1284899 ]
 [ 0.19021916]
 [-0.1735932 ]
 [-0.0842919 ]
 [-0.17199066]
 [-0.20641996]
 [ 0.09106195]
 [-0.07342954]
 [ 0.09903369]
 [-0.15536098]
 [ 0.17396423]
 [ 0.091114  ]
 [-0.19062111]
 [ 0.13405368]
 [ 0.17182958]
 [-0.07843122]
 [-0.18915774]
 [ 0.04582549]
 [ 0.01904188]
 [ 0.18029816]
 [ 0.04683606]
 [-0.02524308]
 [-0.06770021]
 [-0.15743223]
 [-0.15982807]
 [ 0.17216828]
 [-0.09985214]
 [-0.17511131]
 [ 0.04177402]
 [-0.1491743 ]
 [ 0.11672753]
 [-0.20584325]
 [-0.22201285]
 [ 0.1427288 ]
 [ 0.05530036]
 [ 0.1950526 ]
 [-0.12604378]
 [ 0.21027765]
 [-0.07110602]
 [ 0.17988612]
 [ 0.08883935]
 [-0.09469792]
 [ 0.10846308]
 [ 0.08114818]
 [-0.14754434]
 [-0.19835177]
 [-0.21128397]
 [-0.08790047]
 [-0.11549322]
 [ 0.18111418]
 [-0.0617066 ]
 [ 0.22162633]
 [ 0.19417466]
 [-0.21332316]
 [-0.2223339 ]
 [-0.0714427 ]
 [ 0.07000124]
 [-0.04731076]
 [-0.08763222]
 [ 0.17805065]]
sequential/dense/bias:0
(1,)
[0.06617007]
